12 25
5 -0.13753626 -0.07566811 0.05514892 -0.105118476 -0.31735852 0.3481433 0.163557 -0.24970484 0.23993522 0.107772216 -0.054978672 0.09575773 0.15877675 -0.0335015 -0.08315709 -0.16170195 0.36587813 0.011790917 0.5018649 -0.41821432 -0.23369056 0.05089736 -0.26946536 -0.64910144 0.102993876
9 -0.1681266 -0.057710703 0.07176785 -0.08961443 -0.32365602 0.36412013 0.15991136 -0.26795346 0.23197499 0.11102617 -0.06696427 0.106273495 0.12856857 -0.031894017 -0.09400965 -0.17550997 0.38098285 0.017917091 0.48639137 -0.41770142 -0.22338542 0.04360214 -0.2882708 -0.67277735 0.09943069
8 -0.16737124 -0.071309194 0.053821817 -0.08671087 -0.28700444 0.36379948 0.16335216 -0.26372665 0.20747186 0.09172705 -0.102081314 0.11382135 0.11920466 -0.06595505 -0.078527816 -0.18675968 0.3903245 0.0035722193 0.4985269 -0.41643405 -0.22344652 0.06798383 -0.28408697 -0.6677109 0.1308605
2 -0.15932344 -0.04215098 0.08477107 -0.099134766 -0.31847206 0.3627763 0.17658706 -0.27382442 0.2385865 0.097037174 -0.07636267 0.11553974 0.13487735 -0.05406377 -0.08551746 -0.15616454 0.37790713 0.02292674 0.51160103 -0.41811752 -0.20759092 0.06378071 -0.2871105 -0.65037143 0.13403615
1 -0.16333494 -0.06643627 0.052841045 -0.11405229 -0.3198857 0.35977578 0.17320098 -0.25665456 0.20566987 0.07970025 -0.07796029 0.09566118 0.16179879 -0.05224505 -0.064898565 -0.16042688 0.38558936 0.018726338 0.50478995 -0.43712842 -0.21155536 0.04778819 -0.27571157 -0.66062915 0.13680339
4 -0.14237268 -0.06650402 0.0635175 -0.08792705 -0.32628113 0.3401589 0.1679585 -0.2488962 0.20624745 0.10218676 -0.087005734 0.107977 0.15280342 -0.06334543 -0.043872282 -0.16545594 0.37296247 -0.009983866 0.50658077 -0.4146403 -0.23957668 0.06164386 -0.2945328 -0.6634648 0.144747
11 -0.1491481 -0.059372146 0.06643727 -0.08580997 -0.300096 0.35489428 0.16916685 -0.26683807 0.24019656 0.08348589 -0.09188239 0.099163085 0.15421098 -0.0628081 -0.06337177 -0.18013237 0.3627478 -0.0049089133 0.51434433 -0.43673488 -0.24404924 0.041285153 -0.26760632 -0.6687455 0.117430545
7 -0.14721969 -0.0470694 0.06871223 -0.11401356 -0.3338162 0.33329234 0.18342662 -0.2636607 0.25207862 0.09121276 -0.07456205 0.11813946 0.15281849 -0.048542824 -0.07558574 -0.14526452 0.37125692 -0.013079803 0.5051886 -0.41125196 -0.2519787 0.031719957 -0.28674898 -0.68149567 0.11757887
0 -0.14774433 -0.04417613 0.06567242 -0.083067566 -0.2942839 0.34298095 0.18498294 -0.23766756 0.22354122 0.08185298 -0.092958495 0.08174172 0.1214787 -0.057084363 -0.053829562 -0.16168354 0.37938005 -0.005958968 0.49734113 -0.42710757 -0.22024271 0.023670707 -0.27885702 -0.6747245 0.12224557
6 -0.12031166 -0.06357651 0.09243108 -0.11943517 -0.31110692 0.32393435 0.18465225 -0.24562693 0.24217086 0.10482736 -0.10339615 0.107734196 0.15734117 -0.051154867 -0.049564622 -0.13540187 0.3540351 0.008025763 0.503384 -0.43954855 -0.23273571 0.036260728 -0.27056518 -0.6800533 0.10514442
10 -0.16856588 -0.035804417 0.098199315 -0.12992153 -0.36023974 0.3463729 0.18875346 -0.25200316 0.1931427 0.0930384 -0.11016743 0.071047045 0.14168543 -0.047032047 -0.035597306 -0.15500702 0.39696142 0.01982598 0.50177586 -0.4680668 -0.28242627 0.058031272 -0.31069332 -0.74953985 0.11420732
3 -0.18059056 -0.036817454 0.059721798 -0.13149384 -0.34366858 0.3640858 0.16092582 -0.2494683 0.19252215 0.103723004 -0.09347132 0.09355957 0.16824134 -0.045008752 -0.03184752 -0.16332299 0.38157815 0.017134823 0.51891446 -0.4742091 -0.27206776 0.06608412 -0.27985343 -0.7314249 0.09062206
